tree
version=v4
num_class=1
num_tree_per_iteration=1
label_index=0
max_feature_idx=13
objective=regression
feature_names=outdoor_temp outdoor_humidity indoor_temp indoor_humidity indoor_load chiller_load chilled_water_temp cooling_water_temp chilled_pump_freq cooling_pump_freq cooling_tower_fan_freq chilled_pump_running_count cooling_pump_running_count terminal_fan_power
feature_infos=[28:33.799999999999997] [31.699999999999999:60] none none [599.9999999994543:1800.0000000051839] [15.511892450864901:46.535677352771053] [9.3000000000000007:24.800000000000001] [17.699999999999999:28.399999999999999] none [0:43.299999999999997] none none [0:2] none
tree_sizes=2607 2685 2658 2716 2702 2723 2635 2721 2738 2672 2727 2703 2661 2668 2734 2682 2695 2765 2742 2675 2761 2741 2772 2754

Tree=0
num_leaves=31
num_cat=0
split_feature=4 12 9 1 6 6 1 6 6 6 6 6 6 4 6 6 6 6 6 6 4 6 4 6 6 6 6 6 4 6
split_gain=2.13254e+07 340956 313934 4618.84 2518.4 4212.58 1975.06 1559.34 1464.74 2954.79 1148.82 514.283 478.308 681.416 453.006 959.89 418.592 344.408 498.575 321.716 313.955 789.711 246.303 233.332 216.761 278.763 187.553 184.449 160.3 144.669
threshold=900.0000000025924 1.5000000000000002 42.850000000000009 56.850000000000009 13.65 14.450000000000001 56.850000000000009 17.650000000000002 13.250000000000002 14.15 17.950000000000003 18.550000000000004 14.950000000000001 600.00000000286502 13.850000000000003 14.050000000000002 13.65 13.350000000000003 12.15 11.250000000000002 1200.0000000023199 13.850000000000003 1200.0000000023199 11.65 14.050000000000002 13.950000000000001 10.950000000000001 14.15 600.00000000286502 11.250000000000002
decision_type=2 2 2 2 2 2 2 2 2 2 2 2 2 2 2 2 2 2 2 2 2 2 2 2 2 2 2 2 2 2
left_child=2 19 17 20 23 14 -4 -7 -8 16 12 -12 13 -11 -6 -16 -10 18 29 -2 -3 -22 27 26 25 28 -5 -17 -18 -1
right_child=1 3 6 4 5 7 8 -9 9 10 11 -13 -14 -15 15 22 24 -19 -20 -21 21 -23 -24 -25 -26 -27 -28 -29 -30 -31
leaf_value=417.10123992005077 422.47270179663485 425.36965673294753 419.97433679078244 425.16215993362658 425.09819788455496 425.20593584186582 419.80557558496395 425.06020313972107 419.74522193852482 419.75741262556676 419.61314381149197 419.7631272104818 419.82035430788693 419.36915666301144 424.97697014801889 425.02881488724722 419.63498989686343 417.3008521089381 416.96841587352731 422.70431383477558 425.88473096510677 425.35729017614415 425.16984175965433 425.17335717071518 419.69282325465571 419.56458859247022 425.22618780030444 425.10156391386988 419.76728996252109 417.30874010987742
leaf_weight=11.999999999999998 17 150 111 146 271 909 1097 230 97 194 130 102 789 11.999999999999998 488 181 272 58 27 127 11.000000000000002 20 65 894 120 162 528 168 25 28
leaf_count=12 17 150 111 146 271 909 1097 230 97 194 130 102 789 12 488 181 272 58 27 127 11 20 65 894 120 162 528 168 25 28
internal_value=422.728 425.068 419.669 425.153 425.141 425.108 419.767 425.177 419.76 419.733 419.779 419.679 419.803 419.735 425.042 425.024 419.649 417.212 417.134 422.677 425.4 425.544 425.08 425.19 419.633 419.617 425.212 425.064 419.646 417.246
internal_weight=0 4205 3236 4061 3880 2312 3111 1139 3000 1903 1227 232 995 206 1173 902 676 125 67 144 181 31 414 1568 579 459 674 349 297 40
internal_count=7441 4205 3236 4061 3880 2312 3111 1139 3000 1903 1227 232 995 206 1173 902 676 125 67 144 181 31 414 1568 579 459 674 349 297 40
is_linear=0
shrinkage=1


Tree=1
num_leaves=31
num_cat=0
split_feature=4 12 12 1 7 7 7 6 6 1 6 6 7 6 7 6 7 6 7 6 6 7 7 7 7 7 7 6 7 7
split_gain=1.93054e+07 326588 279441 4298.2 3080.98 2942.34 4635.14 4723.31 6246.82 1907.96 1446.01 2247.9 4428.82 1236.14 2346.2 2083.84 2807.54 1637.98 1438.34 1862.87 1042.54 2167.83 788.729 785.765 756.225 880.043 610.779 606.31 1688.78 1206.73
threshold=900.0000000025924 1.5000000000000002 1.5000000000000002 56.850000000000009 22.950000000000003 22.850000000000005 20.950000000000003 13.350000000000003 14.65 56.850000000000009 13.65 14.15 20.050000000000004 13.15 25.750000000000004 14.250000000000002 25.050000000000004 17.750000000000004 25.050000000000004 18.550000000000004 17.650000000000002 26.550000000000004 25.150000000000002 25.050000000000004 21.150000000000002 24.050000000000004 21.750000000000004 13.550000000000002 20.050000000000004 20.950000000000003
decision_type=2 2 2 2 2 2 2 2 2 2 2 2 2 2 2 2 2 2 2 2 2 2 2 2 2 2 2 2 2 2
left_child=2 -2 4 -3 -1 6 10 -8 -9 -4 -5 12 -12 14 24 16 27 26 19 -19 23 22 -22 -7 -11 -26 -17 -15 -29 -30
right_child=1 3 9 5 -6 20 7 8 -10 13 11 -13 -14 15 -16 17 -18 18 -20 -21 21 -23 -24 -25 25 -27 -28 28 29 -31
leaf_value=-6.0578743743896482 -0.045357766769388144 2.536661656697591 -2.6148997668562264 2.4545080940504582 -5.1431912783918712 2.3274664462617709 2.2947375308285962 1.9584151215461334 2.3342377392750868 -2.6711354015794999 1.7357702464592166 2.4476250068250911 2.2907189326743556 -2.8437960930590362 -3.4732108434041344 -2.6707039266600647 -2.7203898582929451 -3.1292327495721675 -2.7500483734663144 -2.7735845231173335 2.1952565383911131 1.6472564442952475 2.4094107499763151 2.4011945069846465 -2.8131635218057811 -2.6876399018298622 -2.7870005787615799 -3.3677337646484378 -2.8461643765544338 -3.0086822121642358
leaf_weight=9.9999999999999982 153 195 116 207 116 1542 444 363 159 163 41 166 292 106 11.999999999999998 133 162 104 86 57 120 14.999999999999998 67 472 707 174 747 26 171 344
leaf_count=10 153 195 116 207 116 1542 444 363 159 163 41 166 292 106 12 133 162 104 86 57 120 15 67 472 707 174 747 26 171 344
internal_value=0 2.2226 -2.90744 2.30759 -5.21579 2.2961 2.24603 2.17486 2.07289 -2.81386 2.34341 2.29732 2.22239 -2.82157 -2.77806 -2.84531 -2.90654 -2.80136 -2.91514 -3.00332 2.33388 2.22559 2.27199 2.34475 -2.77007 -2.78837 -2.76942 -2.95314 -2.97457 -2.95472
internal_weight=0 4236 3234 4083 126 3888 1672 966 522 3108 706 499 333 2992 1056 1936 809 1127 247 161 2216 202 187 2014 1044 881 880 647 541 515
internal_count=7470 4236 3234 4083 126 3888 1672 966 522 3108 706 499 333 2992 1056 1936 809 1127 247 161 2216 202 187 2014 1044 881 880 647 541 515
is_linear=0
shrinkage=0.05


Tree=2
num_leaves=31
num_cat=0
split_feature=4 12 9 7 1 7 7 6 6 6 6 6 7 1 7 6 6 6 6 4 6 7 7 7 7 6 7 6 7 6
split_gain=1.75377e+07 311204 276055 5457.58 4735.12 2775.13 4268.92 5214.78 3847 2061.75 1657.66 2493.52 2694.12 1627.7 1556.78 1736.92 3270.11 1975.28 1314.07 1267.15 2613.54 1148.27 1038.44 1382.71 1081.38 1448.96 875.658 862.482 849.411 820.314
threshold=900.0000000025924 1.5000000000000002 42.850000000000009 22.850000000000005 56.850000000000009 22.550000000000004 20.950000000000003 13.350000000000003 14.65 11.15 13.65 14.15 20.050000000000004 56.850000000000009 25.050000000000004 13.250000000000002 14.250000000000002 17.750000000000004 18.550000000000004 1200.0000000023199 13.850000000000003 22.150000000000002 23.450000000000003 20.950000000000003 20.050000000000004 13.65 24.850000000000005 14.15 21.250000000000004 17.650000000000002
decision_type=2 2 2 2 2 2 2 2 2 2 2 2 2 2 2 2 2 2 2 2 2 2 2 2 2 2 2 2 2 2
left_child=2 9 3 -1 19 6 10 -8 21 -2 -6 12 -12 -4 15 28 22 -18 -19 -3 -21 27 23 24 25 -17 -24 -9 -15 -7
right_child=1 4 13 -5 5 29 7 8 -10 -11 11 -13 -14 14 -16 16 17 18 -20 20 -22 -23 26 -25 -26 -27 -28 -29 -30 -31
leaf_value=-6.0704120982776999 -0.75876742157153787 2.3820259857177737 -2.4853892848802648 -4.9071754613198522 2.3304205169864729 2.2196882754877993 2.1829984257037824 1.8352872371673585 2.2361746997049408 -0.017126440123698655 1.7032386105235031 2.3219431294335258 2.1360685890668059 -2.5382014946119322 -2.5875785900471033 -2.5458381811777753 -2.633479341271542 -2.9415808215583725 -2.6496929258108142 3.3493210879239159 2.3710691663953996 1.6019527746283491 -2.6536955292545148 -2.9284620539347332 -2.7071894432026182 -3.2100585717421311 -3.0083702087402346 2.0930756267748385 -2.6608873394110724 2.1181661728325238
leaf_weight=10.999999999999998 9.9999999999999982 155 115 121 204 2280 325 222 73 149 41 162 292 169 419 11.999999999999998 794 97 64 11.000000000000002 18 46 134 255 183 26 20 38 854 218
leaf_count=11 10 155 115 121 204 2280 325 222 73 149 41 162 292 169 419 12 794 97 64 11 18 46 134 255 183 26 20 38 854 218
internal_value=0 2.10644 -2.76413 -5.00411 2.19091 2.17922 2.12295 2.03605 1.91003 -0.0637705 2.21048 2.16105 2.08278 -2.67002 -2.67704 -2.69141 -2.72419 -2.66586 -2.82555 2.43878 2.74213 1.83222 -2.81262 -2.84913 -2.75759 -3.0003 -2.69976 1.87296 -2.64062 2.21083
internal_weight=0 4244 3274 132 4085 3901 1403 704 379 159 699 495 333 3142 3027 2608 1585 955 161 184 29 306 630 476 221 38 154 260 1023 2498
internal_count=7518 4244 3274 132 4085 3901 1403 704 379 159 699 495 333 3142 3027 2608 1585 955 161 184 29 306 630 476 221 38 154 260 1023 2498
is_linear=0
shrinkage=0.05


Tree=3
num_leaves=31
num_cat=0
split_feature=4 12 9 1 7 6 7 6 7 6 7 6 1 7 6 7 7 6 6 6 6 7 7 7 4 6 6 7 7 7
split_gain=1.56793e+07 282867 216582 4446.45 2715.72 4444.59 5845.82 3619.12 2557.32 2169.15 3045.83 1777.44 1607.94 1388.05 1164.5 1105.76 1016.58 1260.94 1667.23 941.148 2913.96 1064.47 1690.69 1450.59 911.827 2007.49 859.989 2465.62 1158.49 758.562
threshold=900.0000000025924 1.5000000000000002 42.850000000000009 56.850000000000009 22.550000000000004 13.450000000000001 20.950000000000003 15.050000000000002 23.150000000000002 14.15 20.050000000000004 11.15 56.850000000000009 22.250000000000004 13.850000000000003 19.550000000000004 25.050000000000004 17.750000000000004 18.650000000000002 14.850000000000003 13.550000000000002 22.650000000000002 20.950000000000003 20.050000000000004 1200.0000000023199 13.850000000000003 17.650000000000002 26.550000000000004 24.650000000000002 24.850000000000005
decision_type=2 2 2 2 2 2 2 2 2 2 2 2 2 2 2 2 2 2 2 2 2 2 2 2 2 2 2 2 2 2
left_child=2 11 8 24 5 13 9 -8 -1 10 14 -2 -4 -5 -7 -14 17 19 -19 20 -17 22 23 -22 -3 -26 -6 28 -28 -23
right_child=1 3 12 4 26 6 7 -9 -10 -11 -12 -13 15 -15 -16 16 -18 18 -20 -21 21 29 -24 -25 25 -27 27 -29 -30 -31
leaf_value=-5.4777257537841804 -0.70782903200015435 2.2637665695285203 -2.356221389770508 2.1681726111120834 2.1096439904121964 1.9391356243806728 1.7346323513262201 2.1352239300222959 -4.6422709613765054 2.2130573357207868 2.0477928469879458 -0.019364943739647669 -2.3979031334238607 1.9661184256931521 1.4179462334205366 -2.5228988738552638 -2.4793307062474694 -2.8191971191993126 -2.4864468267408473 -2.5033507868647575 -2.9835655212402346 -2.549796835581462 -2.8171828741776319 -2.5618790329827204 3.0370412679818966 2.2464442480178106 1.9395776107247951 1.338395617558406 2.1757959763209027 -2.8966870812808767
leaf_weight=9.9999999999999982 9.9999999999999982 161 116 429 2264 17 330 68 109 158 297 150 121 106 29 1026 410 104 59 640 23 216 190 180 12.999999999999998 21 113 12.999999999999998 96 17
leaf_count=10 10 161 116 429 2264 17 330 68 109 158 297 150 121 106 29 1026 410 104 59 640 23 216 190 180 13 21 113 13 96 17
internal_value=0 2.00022 -2.61917 2.08042 2.06883 2.01403 1.94613 1.80308 -4.71248 2.05977 1.98916 -0.0623939 -2.53886 2.12814 1.61056 -2.54596 -2.55221 -2.56438 -2.69875 -2.55483 -2.57477 -2.65978 -2.70999 -2.60966 2.31345 2.54873 2.10044 2.00652 2.04808 -2.57511
internal_weight=0 4275 3221 4115 3920 1434 899 398 119 501 343 160 3102 535 46 2986 2865 2455 163 2292 1652 626 393 203 195 34 2486 222 209 233
internal_count=7496 4275 3221 4115 3920 1434 899 398 119 501 343 160 3102 535 46 2986 2865 2455 163 2292 1652 626 393 203 195 34 2486 222 209 233
is_linear=0
shrinkage=0.05


Tree=4
num_leaves=31
num_cat=0
split_feature=4 9 9 7 1 6 7 7 7 6 6 7 7 1 7 6 6 6 6 7 6 7 6 7 6 6 7 7 7 7
split_gain=1.42477e+07 253296 216115 4617.1 2878.06 1492.15 7184.3 3295.71 5141.11 3152.34 1657.78 2220.56 1309.8 1269.92 1207.93 1389.33 2848.45 1662.44 1274.2 1096.36 1088.59 1025.88 1015.8 833.947 827.015 826.502 802.703 796.151 1328.55 1023.63
threshold=900.0000000025924 42.850000000000009 42.850000000000009 22.850000000000005 56.850000000000009 13.050000000000002 25.950000000000003 22.550000000000004 20.950000000000003 14.65 14.250000000000002 20.050000000000004 25.050000000000004 56.850000000000009 25.050000000000004 13.550000000000002 14.050000000000002 17.750000000000004 18.650000000000002 21.650000000000002 13.850000000000003 20.050000000000004 13.850000000000003 21.250000000000004 13.950000000000001 18.850000000000005 24.350000000000005 23.450000000000003 20.950000000000003 24.850000000000005
decision_type=2 2 2 2 2 2 2 2 2 2 2 2 2 2 2 2 2 2 2 2 2 2 2 2 2 2 2 2 2 2
left_child=2 -2 3 -1 -3 6 -6 8 10 22 11 20 26 -4 15 19 21 -18 -19 -15 -7 -17 -10 24 -24 -14 -9 28 -23 -29
right_child=1 4 13 -5 5 7 -8 12 9 -11 -12 -13 25 14 -16 16 17 18 -20 -21 -22 27 23 -25 -26 -27 -28 29 -30 -31
leaf_value=-5.502367435802114 -0.025723142282492142 2.1693094456449469 -2.2463414328438893 -4.4301213339100718 2.0237240224781603 1.9183205223083499 0.84250664344200732 1.9867641477125237 1.8023498920479206 2.024597215033197 2.1132047891616823 1.9672118475942904 2.0728700641928048 -2.2948455004188104 -2.3390315731840658 -2.935176016155042 -2.3944748781373906 -2.6759348457934813 -2.3913232803344728 -2.4146585041864537 1.4559022767203196 -2.4818869139018815 1.4604419503893171 1.50625910117076 1.7700154517559294 1.7658028229423193 1.8942727952193046 -2.3641352294327378 -2.6963490292995793 -2.9018543243408206
leaf_weight=10.999999999999998 164 188 112 115 1313 20 12.999999999999998 830 99 77 152 330 464 246 419 19 933 102 64 853 35 133 28 104 94 23 327 77 158 9.9999999999999982
leaf_count=11 164 188 112 115 1313 20 13 830 99 77 152 330 464 246 419 19 933 102 64 853 35 133 28 104 94 23 327 77 158 10
internal_value=0 1.90109 -2.49349 -4.52373 1.97822 1.96903 2.01214 1.94689 1.87216 1.73694 1.97339 1.91819 1.98958 -2.41166 -2.41781 -2.43052 -2.46188 -2.42041 -2.56621 -2.38784 1.62405 -2.57667 1.66879 1.61029 1.69897 2.05837 1.96062 -2.55865 -2.59833 -2.42594
internal_weight=0 4261 3252 126 4097 3909 1326 2583 939 402 537 385 1644 3126 3014 2595 1496 1099 166 1099 55 397 325 226 122 487 1157 378 291 87
internal_count=7513 4261 3252 126 4097 3909 1326 2583 939 402 537 385 1644 3126 3014 2595 1496 1099 166 1099 55 397 325 226 122 487 1157 378 291 87
is_linear=0
shrinkage=0.05


Tree=5
num_leaves=31
num_cat=0
split_feature=4 12 12 7 1 7 6 6 7 7 7 1 7 7 4 7 7 7 7 6 6 6 6 7 7 7 6 6 7 6
split_gain=1.28464e+07 223899 195726 3815.77 3478.12 2194.66 3120.23 5055.5 3441.83 2706.31 1471.58 1183.63 1172.9 1029.9 915.817 1733.5 812.616 845.419 783.784 783.384 691.203 690.349 2252.65 1418.1 2030.92 1730.3 1114.44 995.848 681.319 679.482
threshold=900.0000000025924 1.5000000000000002 1.5000000000000002 22.850000000000005 56.850000000000009 22.850000000000005 13.450000000000001 14.65 20.950000000000003 20.150000000000002 21.750000000000004 56.850000000000009 24.750000000000004 25.050000000000004 1200.0000000023199 21.350000000000005 19.550000000000004 24.250000000000004 19.550000000000004 13.850000000000003 11.450000000000001 14.850000000000003 13.550000000000002 22.650000000000002 20.950000000000003 19.850000000000005 17.550000000000004 18.650000000000002 21.650000000000002 13.850000000000003
decision_type=2 2 2 2 2 2 2 2 2 2 2 2 2 2 2 2 2 2 2 2 2 2 2 2 2 2 2 2 2 2
left_child=2 12 3 -1 14 6 10 8 9 18 -6 -4 -2 20 -3 -16 -13 21 -8 -20 -7 22 28 24 25 -24 -23 -28 -18 -10
right_child=1 4 11 -5 5 13 7 -9 29 -11 -12 16 -14 -15 15 -17 17 -19 19 -21 -22 26 23 -25 -26 -27 27 -29 -30 -31
leaf_value=-5.1203298886617032 -0.015753346703190736 2.0386580091907134 -2.1317646613487833 -4.1848534720284603 1.9970741892194415 1.9610957700338325 1.8593346214294435 1.946296930635298 1.7071315208177891 1.8712059008529764 1.8442839766499664 -2.1763947542048685 -0.46798617965541783 1.9614386700365665 1.9979318300882978 2.7257240931193039 -2.1917756991916231 -2.2677324755588262 1.7425821472616758 1.3416468088016955 1.8692110620130575 -2.2459609549621056 -2.8491455526912919 -2.2997246478964217 -2.5933022201376619 -2.3223954068853501 -2.5535075354197669 -2.2578809444720931 -2.3139565104221878 1.5470688724517823
leaf_weight=11.999999999999998 138 155 104 119 286 239 14.999999999999998 296 89 306 351 121 15.999999999999998 548 18 14.999999999999998 135 878 17 43 1425 464 17 163 189 188 63 52 737 260
leaf_count=12 138 155 104 119 286 239 15 296 89 306 351 121 16 548 18 15 135 878 17 43 1425 464 17 163 189 188 63 52 737 260
internal_value=0 1.80862 -2.37732 -4.27055 1.87955 1.86936 1.82596 1.772 1.70132 1.80523 1.91288 -2.2976 -0.0627386 1.90199 2.08958 2.32875 -2.30334 -2.30866 1.53606 1.45525 1.88241 -2.32655 -2.34521 -2.42376 -2.47508 -2.36608 -2.2805 -2.41983 -2.29504 1.58789
internal_weight=0 4217 3242 131 4063 3875 1663 1026 730 381 637 3111 154 2212 188 33 3007 2886 75 60 1664 2008 1429 557 394 205 579 115 872 349
internal_count=7459 4217 3242 131 4063 3875 1663 1026 730 381 637 3111 154 2212 188 33 3007 2886 75 60 1664 2008 1429 557 394 205 579 115 872 349
is_linear=0
shrinkage=0.05


Tree=6
num_leaves=31
num_cat=0
split_feature=4 12 9 1 6 6 6 1 6 6 6 4 0 6 6 6 4 6 6 4 6 6 6 6 6 6 6 6 6 6
split_gain=1.16119e+07 204936 173247 3202.13 1411.13 2511.12 2585.87 1169.67 1242.87 1409.03 839.594 753.834 1564.02 712.505 462.787 329.681 724.45 317.741 422.299 221.75 202.388 191.208 166.203 149.897 145.287 389.988 143.205 125.473 119.184 270.653
threshold=900.0000000025924 1.5000000000000002 42.850000000000009 56.850000000000009 12.65 14.050000000000002 13.850000000000003 52.750000000000007 13.15 14.15 17.950000000000003 1200.0000000023199 29.350000000000005 13.350000000000003 13.65 14.950000000000001 600.00000000286502 17.650000000000002 14.550000000000002 1200.0000000023199 18.250000000000004 18.150000000000002 11.250000000000002 14.050000000000002 12.15 11.550000000000002 18.050000000000004 14.15 11.550000000000002 10.950000000000001
decision_type=2 2 2 2 2 2 2 2 2 2 2 2 2 2 2 2 2 2 2 2 2 2 2 2 2 2 2 2 2 2
left_child=2 22 13 11 28 6 -6 -4 -9 14 15 -3 -13 24 -10 16 -11 18 19 -7 -12 26 -2 -16 25 -1 -19 -21 29 -5
right_child=1 3 7 4 5 17 -8 8 9 10 20 12 -14 -15 23 -17 -18 21 -20 27 -22 -23 -24 -25 -26 -27 -28 -29 -30 -31
leaf_value=-4.2831334984820826 -0.17097565135673476 1.939892347359363 -2.0216325487409317 1.7803901521090806 1.7703001933662517 1.7523487934699427 1.6190507750619543 -2.1427640544192892 -2.1812421255738199 -2.1899590860499014 -2.3163050498962403 1.8681382123161765 2.5568913221359253 -3.9700712521870933 -2.2962011696928637 -2.1411431590560217 -2.6066289554942741 1.7213054879506431 1.8276837114086086 1.9052086597535671 -2.2213704094290736 1.776871273115084 -0.013511464756611788 -2.235927587566954 -4.3076156457265222 -3.9616905689239506 1.5695983341761999 1.7782097687592378 1.8073216992789025 1.8601008265393038
leaf_weight=23 19 162 112 145 608 377 528 1065 137 202 100 17 15.999999999999998 60 472 765 10.999999999999998 60 869 41 128 154 142 132 24 15.999999999999998 21 37 657 401
leaf_count=23 19 162 112 145 608 377 528 1065 137 202 100 17 16 60 472 765 11 60 869 41 128 154 142 132 24 16 21 37 657 401
internal_value=0 1.7177 -2.25276 1.78653 1.77664 1.75654 1.7 -2.18029 -2.18619 -2.20995 -2.1766 1.98426 2.20208 -4.09338 -2.26421 -2.15646 -2.21148 1.79774 1.80725 1.76823 -2.26301 1.74416 -0.0320942 -2.28303 -4.21082 -4.15126 1.68197 1.84497 1.82167 1.83893
internal_weight=0 4254 3247 4093 3898 2695 1136 3124 3012 1947 1206 195 33 123 741 978 213 1559 1324 455 228 235 161 604 63 39 81 78 1203 546
internal_count=7501 4254 3247 4093 3898 2695 1136 3124 3012 1947 1206 195 33 123 741 978 213 1559 1324 455 228 235 161 604 63 39 81 78 1203 546
is_linear=0
shrinkage=0.05


Tree=7
num_leaves=31
num_cat=0
split_feature=5 12 9 1 7 7 7 6 6 6 6 6 7 1 7 6 6 6 6 7 7 6 7 7 7 7 5 6 7 6
split_gain=1.03915e+07 196790 158480 3076.83 1670.37 1572.81 2912.29 2868.17 3870.86 1448.73 1041.34 1413.25 2375.92 951.118 777.448 1043.85 2016.64 1169.46 814.211 711.553 700.233 674.328 657.21 1402.71 835.849 711.78 645.215 1724.55 628.867 611.038
threshold=23.26783867638553 1.5000000000000002 42.850000000000009 56.850000000000009 23.050000000000004 22.850000000000005 20.950000000000003 13.350000000000003 14.65 11.15 13.65 14.15 20.050000000000004 52.750000000000007 25.050000000000004 13.550000000000002 14.050000000000002 17.750000000000004 18.550000000000004 21.150000000000002 25.050000000000004 17.750000000000004 21.750000000000004 20.950000000000003 20.050000000000004 24.850000000000005 31.023784901817979 13.850000000000003 19.550000000000004 13.850000000000003
decision_type=2 2 2 2 2 2 2 2 2 2 2 2 2 2 2 2 2 2 2 2 2 2 2 2 2 2 2 2 2 2
left_child=2 9 4 26 -1 6 10 -8 29 -2 -5 12 28 -4 15 19 22 -18 -19 -15 21 -7 23 24 -17 -24 -3 -28 -12 -9
right_child=1 3 13 5 -6 20 7 8 -10 -11 11 -13 -14 14 -16 16 17 18 -20 -21 -22 -23 25 -25 -26 -27 27 -29 -30 -31
leaf_value=-4.4670235824584967 -0.60754110758954827 1.8465700317478781 -1.9174409456342181 1.8157065947850546 -3.7944222036997481 1.7030648765913605 1.6847575558083401 1.5267516872670392 1.7106553784538718 -0.013971107787672122 1.6262163257598878 1.806478273868561 1.676866277655644 -1.9571182222222565 -2.0056997905869083 -2.5228195317586266 -2.0510947118073832 -2.2857752193104139 -2.0485582954005195 -2.0616067088618295 1.7596719023547598 1.5733692957976155 -2.0922382227579752 -2.4269422130820195 -2.1293899762188948 -2.5105075836181641 2.537847137451172 1.7981077289581302 1.1736036893093225 1.3822956599687277
leaf_weight=9.9999999999999982 10.999999999999998 159 107 216 120 1582 448 101 170 157 9.9999999999999982 160 293 199 415 14.999999999999998 924 99 57 899 553 107 135 81 135 10.999999999999998 12.999999999999998 20 33 266
leaf_count=10 11 159 107 216 120 1582 448 101 170 157 10 160 293 199 415 15 924 99 57 899 553 107 135 81 135 11 13 20 33 266
internal_value=0 1.62466 -2.13614 1.69288 -3.84616 1.68335 1.64703 1.59135 1.51342 -0.0528358 1.72408 1.68417 1.62593 -2.0639 -2.06917 -2.07948 -2.10723 -2.07247 -2.1991 -2.04267 1.71084 1.69485 -2.20679 -2.25927 -2.16873 -2.12375 1.88833 2.08952 1.27886 1.42205
internal_weight=0 4299 3207 4131 130 3939 1697 985 537 168 712 496 336 3077 2970 2555 1457 1080 156 1098 2242 1689 377 231 150 146 192 33 43 367
internal_count=7506 4299 3207 4131 130 3939 1697 985 537 168 712 496 336 3077 2970 2555 1457 1080 156 1098 2242 1689 377 231 150 146 192 33 43 367
is_linear=0
shrinkage=0.05


Tree=8
num_leaves=31
num_cat=0
split_feature=4 12 12 1 7 7 6 6 7 7 7 7 1 7 6 6 7 6 6 7 6 7 6 6 4 6 7 6 7 7
split_gain=9.49282e+06 165911 139939 2585.6 1586.69 1421.55 1435.28 3171.13 1611.99 1851.9 1466.64 1098.28 963.35 892.493 822.009 803.348 971.933 1249.77 2408.19 1369.95 1161.53 755.531 688.945 677.177 660.052 1788.59 654.6 624.159 2085.4 623.344
threshold=900.0000000025924 1.5000000000000002 1.5000000000000002 56.850000000000009 22.950000000000003 23.750000000000004 14.550000000000002 13.850000000000003 23.450000000000003 20.950000000000003 20.150000000000002 20.950000000000003 56.850000000000009 22.050000000000004 13.950000000000001 10.550000000000002 25.050000000000004 13.550000000000002 14.15 21.450000000000003 17.750000000000004 21.150000000000002 18.350000000000005 13.950000000000001 1200.0000000023199 13.850000000000003 24.550000000000004 17.650000000000002 26.550000000000004 21.050000000000004
decision_type=2 2 2 2 2 2 2 2 2 2 2 2 2 2 2 2 2 2 2 2 2 2 2 2 2 2 2 2 2 2
left_child=2 -2 4 24 -1 6 7 11 9 10 14 -5 -4 -8 -9 -14 17 21 -19 -20 -21 -17 -22 -11 -3 -26 -23 -7 -29 -25
right_child=1 3 12 5 -6 27 13 8 -10 23 -12 -13 15 -15 -16 16 -18 18 19 20 22 26 -24 29 25 -27 -28 28 -30 -31
leaf_value=-4.2399631690979005 -0.027291677919974239 1.7471032190622773 -1.8258509724228471 1.6923601040750178 -3.5848403836860032 1.6527318379186817 1.7380678890860655 0.85955934047698968 1.7394587468127813 1.1949300050735474 1.572359385957905 1.5784585570290925 -2.4252284240722659 1.6026982322463335 1.3770297570662065 -1.8568906843974329 -1.9065346421482408 -2.1083241930804282 -1.8420016179601832 -1.9713566917519385 -2.2043555092565792 -1.9805992084183719 -1.9853276888529461 1.5014219352177212 2.4785756985346481 1.7064388084411624 -1.8391816526978884 1.6071020637462343 1.0071699142456054 1.3238524530244913
leaf_weight=9.9999999999999982 161 159 108 265 122 1240 187 9.9999999999999982 49 58 255 1051 9.9999999999999982 349 33 191 428 491 166 687 97 812 57 77 11.999999999999998 20 91 153 15.999999999999998 138
leaf_count=10 161 159 108 265 122 1240 187 10 49 58 255 1051 10 349 33 191 428 491 166 687 97 812 57 77 12 20 91 153 16 138
internal_value=0 1.54696 -2.03967 1.6092 -3.63447 1.60036 1.57752 1.55747 1.46424 1.44062 1.52681 1.60139 -1.97259 1.64993 1.25669 -1.97782 -1.97634 -1.98786 -2.01754 -1.97327 -1.99918 -1.94724 -2.12329 1.34655 1.7888 1.99599 -1.96635 1.64045 1.5503 1.38745
internal_weight=0 4233 3270 4072 132 3881 2472 1936 620 571 298 1316 3138 536 43 3030 3020 2592 1498 1007 841 1094 154 273 191 32 903 1409 169 215
internal_count=7503 4233 3270 4072 132 3881 2472 1936 620 571 298 1316 3138 536 43 3030 3020 2592 1498 1007 841 1094 154 273 191 32 903 1409 169 215
is_linear=0
shrinkage=0.05


Tree=9
num_leaves=31
num_cat=0
split_feature=4 12 9 7 1 7 6 6 7 7 7 7 7 1 7 7 6 6 6 6 7 6 6 7 6 7 7 6 6 7
split_gain=8.46561e+06 138236 128992 3932.31 1607.82 1438.38 2276.49 3556.59 2337.64 1359.58 1151.74 1029.81 793.966 890.879 891.892 1161.64 1613.37 1666.18 1239.85 605.226 582.798 488.016 1029.1 1172.21 472.087 587.493 540.245 467.937 771.33 691.372
threshold=900.0000000025924 1.5000000000000002 42.850000000000009 23.050000000000004 56.850000000000009 22.850000000000005 13.450000000000001 14.550000000000002 20.950000000000003 20.050000000000004 21.750000000000004 19.550000000000004 25.050000000000004 52.45000000000001 20.950000000000003 22.650000000000002 13.750000000000002 15.15 17.750000000000004 13.850000000000003 22.050000000000004 14.15 13.65 20.050000000000004 11.65 25.050000000000004 24.950000000000003 13.850000000000003 13.950000000000001 21.050000000000004
decision_type=2 2 2 2 2 2 2 2 2 2 2 2 2 2 2 2 2 2 2 2 2 2 2 2 2 2 2 2 2 2
left_child=2 -2 3 -1 -3 6 10 8 9 11 -6 -8 13 -4 21 16 -16 -18 -17 -13 -9 22 -15 -24 -7 26 -26 -10 -29 -30
right_child=1 4 12 -5 5 24 7 20 27 -11 -12 19 -14 14 15 18 17 -19 -20 -21 -22 -23 23 -25 25 -27 -28 28 29 -31
leaf_value=-4.4648951339721679 -0.028866623042049969 1.6775276394838787 -1.7322856145484427 -3.4304505441041124 1.6336638329075832 1.6049064145611891 1.6032759393964495 1.6466837228730669 1.3796173707403319 1.5092628739512386 1.499192999644452 1.4387925100326537 -1.8001439835543924 -1.7626909501371326 -1.8796144171644706 -1.8566108026204533 -2.1288676288101698 -1.8387926999260398 -2.0133492277680545 0.98770356342710297 1.5073074021733794 -1.7414369563122731 -2.2756224068728361 -1.8865115254562097 1.5284710321151433 1.585294258353021 1.3138896703720093 1.0897140829186691 1.424108089038304 1.225450690994915
leaf_weight=9.9999999999999982 147 181 107 113 306 346 13.999999999999998 172 99 313 332 9.9999999999999982 426 171 313 1367 182 68 139 29 133 143 22 161 1318 543 30 57 70 117
leaf_count=10 147 181 107 113 306 346 14 172 99 313 332 10 426 171 313 1367 182 68 139 29 133 143 22 161 1318 543 30 57 70 117
internal_value=0 1.47745 -1.92657 -3.51455 1.53186 1.52508 1.48969 1.44314 1.38172 1.46961 1.56369 1.23542 -1.86354 -1.87364 -1.87954 -1.89398 -1.95526 -2.04997 -1.87108 1.10337 1.58591 -1.81939 -1.85088 -1.93329 1.55121 1.54138 1.5237 1.28793 1.25073 1.29981
internal_weight=0 4217 3222 123 4070 3889 1652 1014 709 366 638 53 3099 2673 2566 2069 563 250 1506 39 305 497 354 183 2237 1891 1348 343 244 187
internal_count=7439 4217 3222 123 4070 3889 1652 1014 709 366 638 53 3099 2673 2566 2069 563 250 1506 39 305 497 354 183 2237 1891 1348 343 244 187
is_linear=0
shrinkage=0.05


Tree=10
num_leaves=31
num_cat=0
split_feature=4 9 9 7 1 7 7 6 6 7 7 7 7 1 6 6 7 4 1 6 7 7 6 7 6 7 7 6 7 7
split_gain=7.63414e+06 133418 109242 2809.83 2123.11 1011.35 1432.91 1251.68 2228.62 2111.59 1555.84 676.843 759.631 1372.25 1582.19 1836.74 670.784 609.457 1506.77 557.288 855.463 724.118 575.142 461.988 418.845 2736.15 505.593 542.044 484.131 442.583
threshold=900.0000000025924 42.850000000000009 42.850000000000009 22.850000000000005 56.850000000000009 19.550000000000004 22.850000000000005 13.350000000000003 14.550000000000002 20.950000000000003 20.050000000000004 20.950000000000003 22.650000000000002 56.850000000000009 13.65 14.950000000000001 21.750000000000004 1200.0000000023199 42.95000000000001 17.750000000000004 25.050000000000004 26.450000000000003 18.650000000000002 22.050000000000004 17.650000000000002 26.550000000000004 25.150000000000002 18.550000000000004 25.050000000000004 24.950000000000003
decision_type=2 2 2 2 2 2 2 2 2 2 2 2 2 2 2 2 2 2 2 2 2 2 2 2 2 2 2 2 2 2
left_child=2 -2 3 -1 17 -6 7 16 9 10 -9 -4 13 -13 -15 -16 -7 -3 -19 -14 22 -22 -21 -10 28 26 27 -26 29 -8
right_child=1 4 11 -5 5 6 24 8 23 -11 -12 12 19 14 15 -17 -18 18 -20 20 21 -23 -24 -25 25 -27 -28 -29 -30 -31
leaf_value=-4.09728872125799 -0.020529535118748183 1.5798485882310984 -1.7215726594868936 -3.2573488289969306 1.5796618931634088 1.5502158295540582 1.4657450738814406 1.0836313608920936 1.5555042102419099 1.2405957597875994 1.4435097370319026 -1.6541970704731188 -1.7586001518705741 -1.7802674735618744 -2.0280794182602242 -1.7425052920474284 1.4293785864985022 2.2013379505702422 1.4800919342041017 -1.9892319378099945 -1.6740909436853924 -2.1061199014837091 -1.7632193613052369 1.4251641787588598 1.3068116695849927 0.66697967052459717 1.5506257997432227 1.5490157329674925 1.5191967087809513 1.2883482893308005
leaf_weight=10.999999999999998 159 166 511 105 140 168 1506 33 145 359 334 95 1689 302 196 79 363 14.000000000000002 14.999999999999998 95 82 10.999999999999998 40 128 77 11.999999999999998 71 33 478 36
leaf_count=11 159 166 511 105 140 168 1506 33 145 359 334 95 1689 302 196 79 363 14 15 95 82 11 40 128 77 12 71 33 478 36
internal_value=0 1.4004 -1.83053 -3.337 1.4558 1.44772 1.44279 1.40558 1.37261 1.32681 1.41115 -1.77416 -1.78454 -1.83028 -1.85928 -1.94604 1.46761 1.61679 1.82828 -1.76851 -1.84188 -1.72519 -1.92227 1.49439 1.46851 1.39814 1.44661 1.37947 1.47523 1.4616
internal_weight=0 4237 3216 116 4078 3883 3743 1530 999 726 367 3100 2589 672 577 275 531 195 29 1917 228 93 135 273 2213 193 181 110 2020 1542
internal_count=7453 4237 3216 116 4078 3883 3743 1530 999 726 367 3100 2589 672 577 275 531 195 29 1917 228 93 135 273 2213 193 181 110 2020 1542
is_linear=0
shrinkage=0.05


Tree=11
num_leaves=31
num_cat=0
split_feature=4 12 9 1 6 6 7 7 7 7 7 7 7 6 7 7 7 7 7 6 7 1 7 7 6 6 4 6 6 7
split_gain=6.92064e+06 120933 106661 2025.99 1050.98 2060.41 2057.72 1479.72 1488.86 2434.35 849.403 846.496 839.44 1325.95 833.017 728.51 974.449 690.282 961.566 868.457 1627.41 594.237 588.809 1666.18 1429.01 1402.14 563.113 1798.16 526.161 473.167
threshold=900.0000000025924 1.5000000000000002 42.850000000000009 56.850000000000009 13.750000000000002 14.15 20.050000000000004 25.250000000000004 20.950000000000003 21.650000000000002 24.850000000000005 22.850000000000005 26.350000000000005 17.550000000000004 21.250000000000004 21.750000000000004 24.150000000000002 21.450000000000003 25.150000000000002 14.550000000000002 22.950000000000003 52.45000000000001 20.950000000000003 22.650000000000002 13.250000000000002 14.950000000000001 1200.0000000023199 13.850000000000003 17.750000000000004 23.650000000000002
decision_type=2 2 2 2 2 2 2 2 2 2 2 2 2 2 2 2 2 2 2 2 2 2 2 2 2 2 2 2 2 2
left_child=2 -2 11 26 15 6 -6 8 -8 14 29 -1 17 -14 -10 -5 -17 -7 19 20 -19 -4 -23 24 -24 -26 -3 -28 -21 -11
right_child=1 3 21 4 5 12 7 -9 9 10 -12 -13 13 -15 -16 16 -18 18 -20 28 -22 22 23 -25 25 -27 27 -29 -30 -31
leaf_value=-3.5707582283020018 -0.031106751440446591 1.5000230405237769 -1.5695888803555418 1.4650850948105512 0.91462450436183385 1.4825002122808386 1.3682492952597771 1.4415093887071668 1.1318423565590021 1.2781054373582206 1.1009245988799303 -3.0925422268529097 1.5083305740356447 0.89282942499433249 0.87138047575950628 1.3579373929097409 1.4557302858369152 0.97683733614479618 1.4749626966280358 1.3944529419651739 1.3582372716882014 -1.6417237987518309 -1.6946482073991822 -1.6791606214033994 -1.9200662290546255 -1.6634964459378954 2.2484046415849166 1.459266217549642 1.2842455523882725 1.4200345337909202
leaf_weight=9.9999999999999982 158 154 104 351 35 189 266 163 132 120 41 124 14.999999999999998 21 40 958 347 41 214 675 88 500 266 1910 213 71 10.999999999999998 21 129 115
leaf_count=10 158 154 104 351 35 189 266 163 132 120 41 124 15 21 40 958 347 41 214 675 88 500 266 1910 213 71 11 21 129 115
internal_value=0 1.32644 -1.74745 1.37842 1.37081 1.34882 1.29058 1.30558 1.27455 1.21891 1.31092 -3.12823 1.38754 1.14929 1.07127 1.40114 1.38394 1.39396 1.37937 1.35745 1.23702 -1.68706 -1.69119 -1.70124 -1.77793 -1.85592 1.53968 1.73053 1.37677 1.34756
internal_weight=0 4284 3198 4126 3940 2284 912 877 714 448 276 134 1372 36 172 1656 1305 1336 1147 933 129 3064 2960 2460 550 284 186 32 804 235
internal_count=7482 4284 3198 4126 3940 2284 912 877 714 448 276 134 1372 36 172 1656 1305 1336 1147 933 129 3064 2960 2460 550 284 186 32 804 235
is_linear=0
shrinkage=0.05


Tree=12
num_leaves=31
num_cat=0
split_feature=4 9 9 1 7 6 6 7 6 7 6 1 6 6 7 7 7 7 6 7 7 6 6 7 6 6 7 7 7 7
split_gain=6.18709e+06 108570 87750.7 1238 882.027 2000.88 3079.97 2302.33 1901.67 1241.24 700.875 590.517 604.107 1002.94 1432.06 851.337 550.227 503.392 493.972 487.144 473.272 676.952 529.564 449.656 434.11 418.221 1133.14 577.463 468.598 1281.81
threshold=900.0000000025924 42.850000000000009 42.850000000000009 56.850000000000009 22.850000000000005 13.350000000000003 14.65 20.950000000000003 10.750000000000002 20.050000000000004 11.550000000000002 56.850000000000009 13.15 14.050000000000002 25.250000000000004 21.450000000000003 22.250000000000004 22.650000000000002 17.950000000000003 21.750000000000004 25.050000000000004 18.750000000000004 18.550000000000004 19.550000000000004 14.050000000000002 13.65 20.050000000000004 21.750000000000004 20.950000000000003 21.750000000000004
decision_type=2 2 2 2 2 2 2 2 2 2 2 2 2 2 2 2 2 2 2 2 2 2 2 2 2 2 2 2 2 2
left_child=2 -2 10 -3 5 16 7 9 -6 23 -1 -4 -13 14 25 -15 -5 -9 19 -17 22 -22 -20 -7 -11 27 -27 -14 -28 -30
right_child=1 3 11 4 8 6 -8 17 -10 24 -12 12 13 15 -16 18 -18 -19 20 -21 21 -23 -24 -25 -26 26 28 -29 29 -31
leaf_value=-3.2478309029027042 -0.014706659045139826 1.4355427334759687 -1.4906060137838688 1.379431972366113 0.79699443929335656 1.2826236520494734 1.3669029522256884 1.0702515099422041 1.3278605111729016 1.2686820805314101 -2.9175760085766136 -1.5799583404710231 -1.4765236473083496 -1.510837926909822 -1.5068727897875238 -1.8869739850362142 1.2803061132747415 1.3073745131492616 -1.827670559883118 -1.599632427116549 -1.4707263780676803 -1.7825485604149955 -1.6238855721815577 0.95229058082287121 1.4060289179484051 -2.1049275493621828 -1.6426909547863584 -1.7186982750892641 -1.9060551684389833 -1.6712541770935059
leaf_weight=19 161 185 106 416 17 13.999999999999998 303 332 2200 247 104 1037 40 211 99 14.999999999999998 211 24 80 886 46 28 53 39 75 20 132 64 93 155
leaf_count=19 161 185 106 416 17 14 303 332 2200 247 104 1037 40 211 99 15 211 24 80 886 46 28 53 39 75 20 132 64 93 155
internal_value=0 1.25872 -1.65911 1.30918 1.30315 1.2756 1.23287 1.17731 1.32379 1.26377 -2.96859 -1.60656 -1.61072 -1.62731 -1.68073 -1.60289 1.34607 1.08624 -1.62042 -1.60442 -1.69007 -1.58871 -1.74646 1.03955 1.30067 -1.71488 -1.7381 -1.62555 -1.7188 -1.7593
internal_weight=0 4224 3188 4063 3878 1661 1034 731 2217 375 123 3065 2959 1922 603 1319 627 356 1108 901 207 74 133 53 322 504 400 104 380 248
internal_count=7412 4224 3188 4063 3878 1661 1034 731 2217 375 123 3065 2959 1922 603 1319 627 356 1108 901 207 74 133 53 322 504 400 104 380 248
is_linear=0
shrinkage=0.05


Tree=13
num_leaves=31
num_cat=0
split_feature=5 12 9 1 6 7 6 6 7 0 5 7 7 6 6 7 7 1 7 6 6 6 7 7 7 6 6 7 6 6
split_gain=5.65491e+06 101064 77785.8 1600.64 1237.33 978.459 1421.9 2127.82 829.647 1107.65 760.804 2707.87 729.722 1064.86 683.63 641.174 612.995 756.009 651.087 901.547 944.654 701.742 580.286 550.443 358.542 467.654 353.881 336.393 436.697 332.998
threshold=23.26783867638553 1.5000000000000002 42.850000000000009 45.45000000000001 11.15 22.850000000000005 12.65 14.65 20.950000000000003 29.950000000000003 31.023784901817979 21.350000000000005 20.150000000000002 13.65 13.850000000000003 20.950000000000003 24.250000000000004 56.850000000000009 21.550000000000004 13.65 14.050000000000002 17.450000000000003 19.550000000000004 21.950000000000003 25.050000000000004 17.750000000000004 18.350000000000005 22.150000000000002 17.150000000000002 11.450000000000001
decision_type=2 2 2 2 2 2 2 2 2 2 2 2 2 2 2 2 2 2 2 2 2 2 2 2 2 2 2 2 2 2
left_child=2 4 -1 10 -2 6 23 8 12 -10 -3 -12 13 -8 -11 -4 17 -17 19 -19 -21 -20 -15 -5 25 29 -27 -9 -29 -7
right_child=1 3 15 5 -6 24 7 27 9 14 11 -13 -14 22 -16 16 -18 18 21 20 -22 -23 -24 -25 -26 26 -28 28 -30 -31
leaf_value=-2.7875298908778601 -0.53590716123580939 1.3561069126786858 -1.4692999964094349 1.3216343260286656 -0.0075977066866973232 1.3071622710961561 1.3485278526941935 1.3425438274820167 1.3155529452305215 1.1478626324031167 1.2353254826863604 2.29752986907959 1.2289272294550464 1.2870792323892768 1.0181216707561007 -1.4137365090726604 -1.4966422978696112 -1.4785046716169878 -1.5346554638756007 -1.8231465256214143 -1.5303158601125082 -1.6634199781003205 0.88735248446464543 1.2227186056700621 1.2947963762050827 1.0747936182755691 1.2702057825194466 1.2747309650693621 1.0198100447654725 1.2453267608719856
leaf_weight=126 11.999999999999998 116 514 301 145 260 24 166 51 167 15.000000000000002 9.9999999999999982 311 10.999999999999998 259 99 886 55 1324 80 42 115 52 264 564 65 36 105 20 1339
leaf_count=126 12 116 514 301 145 260 24 166 51 167 15 10 311 11 259 99 886 55 1324 80 42 115 52 264 564 65 36 105 20 1339
internal_value=0 1.19719 -1.56959 1.24446 -0.047978 1.23861 1.21032 1.17877 1.13982 1.09535 1.41003 1.66021 1.19312 1.06511 1.06898 -1.52033 -1.53041 -1.54786 -1.55608 -1.64657 -1.72234 -1.54495 0.957146 1.27542 1.26025 1.24879 1.14445 1.29589 1.23394 1.25538
internal_weight=0 4293 3241 4136 157 3995 1731 1166 875 477 141 25 398 87 426 3115 2601 1715 1616 177 122 1439 63 565 2264 1700 101 291 125 1599
internal_count=7534 4293 3241 4136 157 3995 1731 1166 875 477 141 25 398 87 426 3115 2601 1715 1616 177 122 1439 63 565 2264 1700 101 291 125 1599
is_linear=0
shrinkage=0.05


Tree=14
num_leaves=31
num_cat=0
split_feature=5 12 9 1 7 6 7 6 7 6 7 7 7 7 7 6 6 1 7 6 6 7 7 7 7 7 7 7 7 6
split_gain=5.11549e+06 97931.4 70855.2 1443.6 3104.95 1117.06 774.203 630.641 1134.04 1324.19 887.058 665.836 577.373 564.817 560.114 806.572 1326.97 1649.31 882.48 752.3 732.742 599.794 1132.23 665.052 559.689 555.139 436.253 517.97 425.451 1700.83
threshold=23.26783867638553 1.5000000000000002 42.850000000000009 43.050000000000004 21.350000000000005 11.15 22.850000000000005 13.65 25.050000000000004 14.050000000000002 20.150000000000002 20.950000000000003 21.650000000000002 24.150000000000002 25.050000000000004 13.550000000000002 14.250000000000002 56.850000000000009 20.050000000000004 17.750000000000004 18.550000000000004 20.950000000000003 22.550000000000004 24.850000000000005 22.250000000000004 23.650000000000002 21.650000000000002 24.150000000000002 26.550000000000004 17.550000000000004
decision_type=2 2 2 2 2 2 2 2 2 2 2 2 2 2 2 2 2 2 2 2 2 2 2 2 2 2 2 2 2 2
left_child=2 5 6 4 -3 -2 -1 12 9 10 -9 -11 -5 -14 15 26 17 -17 -19 -18 25 -20 24 -24 -23 -21 -4 -28 -10 -30
right_child=1 3 14 7 -6 -7 -8 8 28 11 -12 -13 13 -15 -16 16 19 18 21 20 -22 22 23 -25 -26 -27 27 -29 29 -31
leaf_value=-3.109314842224121 -0.50577841748793917 1.2772842089335124 -1.3633449539305671 1.269670154896867 2.165617960149592 -0.0052693805667708158 -2.6496326341541536 0.87106362921851022 1.2597720146538745 1.2593585850441293 1.1083491954099134 1.1638179166102354 1.1729554950314409 1.2487791735600129 -1.3921479122660987 -1.3454645827265068 -1.4181114338107945 -1.8495600663698637 -1.4755125214712961 -1.3165249604445239 -1.3996182012557985 -1.6529840175922101 -1.4697640442409399 -1.7900272528330488 -1.9727508862813314 -1.6670892837435702 -1.4554974544114172 -1.3531287628532258 1.2858261216770519 0.70888282457987473
leaf_weight=9.9999999999999982 11.999999999999998 93 252 299 10.999999999999998 157 109 42 373 219 633 1090 952 331 428 101 776 26 175 12.999999999999998 60 156 163 18 14.999999999999998 86 724 149 44 18
leaf_count=10 12 93 252 299 11 157 109 42 373 219 633 1090 952 331 428 101 776 26 175 13 60 156 163 18 15 86 724 149 44 18
internal_value=0 1.13877 -1.49067 1.18733 1.37124 -0.0408085 -2.68826 1.18255 1.1665 1.15047 1.09358 1.1798 1.2071 1.19252 -1.44531 -1.45369 -1.47663 -1.53126 -1.56519 -1.43841 -1.53749 -1.55116 -1.58877 -1.50161 -1.68103 -1.62106 -1.4213 -1.43803 1.23961 1.11833
internal_weight=0 4274 3261 4105 104 169 119 4001 2419 1984 675 1309 1582 1283 3142 2714 1589 654 553 935 159 527 352 181 171 99 1125 873 435 62
internal_count=7535 4274 3261 4105 104 169 119 4001 2419 1984 675 1309 1582 1283 3142 2714 1589 654 553 935 159 527 352 181 171 99 1125 873 435 62
is_linear=0
shrinkage=0.05


Tree=15
num_leaves=31
num_cat=0
split_feature=4 9 9 1 1 6 7 7 6 6 6 7 4 7 0 7 7 7 7 7 7 7 6 7 6 7 7 1 6 7
split_gain=4.62537e+06 80250.3 67530.7 1278.95 3060.92 545.77 671.816 518.37 468.597 1054.68 707.016 686.631 1129.65 1823.72 907.15 1617.87 724.932 471.489 468.984 1081.66 449.792 502.674 443.271 546.789 655.376 1005.84 845.848 605.051 593.628 503.649
threshold=900.0000000025924 42.850000000000009 42.850000000000009 42.95000000000001 42.250000000000007 11.65 25.050000000000004 22.850000000000005 14.350000000000003 13.750000000000002 17.650000000000002 23.550000000000004 1200.0000000023199 24.250000000000004 29.950000000000003 21.050000000000004 20.150000000000002 22.250000000000004 21.650000000000002 21.450000000000003 21.050000000000004 24.150000000000002 13.65 25.250000000000004 14.050000000000002 20.050000000000004 21.250000000000004 56.850000000000009 17.750000000000004 21.550000000000004
decision_type=2 2 2 2 2 2 2 2 2 2 2 2 2 2 2 2 2 2 2 2 2 2 2 2 2 2 2 2 2 2
left_child=2 -2 7 4 -3 -5 8 -1 9 20 -10 14 -13 -14 -11 16 -16 -12 19 -17 -7 -22 -4 24 25 -24 -26 -27 -28 -29
right_child=1 3 22 5 -6 6 -8 -9 10 11 17 12 13 -15 15 18 -18 -19 -20 -21 21 -23 23 -25 26 27 28 29 -30 -31
leaf_value=-2.8755980751731181 -0.011773493587507965 1.210588738123576 -1.3480031383757103 1.1628466085020182 2.132682447433472 1.2068887573204294 1.1636650915358135 -2.5164557785823427 1.1501676219321 1.1960337741954907 1.2669658158954822 1.0772099519561151 1.7078616225719452 1.0141325606240166 0.89475254145535554 0.90141139995484121 1.0883267838164161 1.0010614465264713 0.95592953540660719 0.46191860834757492 1.0917970028565955 1.1999208919478186 -1.8384385526180269 -1.3245661617914837 -1.2918280287792809 -1.2829024164300218 -1.3816060985442133 -1.508294061411207 -1.4896733936510589 -1.392238804231207
leaf_weight=10.999999999999998 161 90 1226 673 9.9999999999999982 151 556 116 814 74 19 167 20 18 55 63 401 136 135 18 579 132 15.999999999999998 300 228 57 775 214 152 166
leaf_count=11 161 90 1226 673 10 151 556 116 814 74 19 167 20 18 55 63 401 136 135 18 579 132 16 300 228 57 775 214 152 166
internal_value=0 1.08329 -1.41726 1.12617 1.3028 1.12177 1.11349 -2.54756 1.10346 1.08846 1.13153 1.05215 1.1332 1.37925 1.02988 1.01158 1.06498 1.03366 0.898861 0.803746 1.12852 1.11187 -1.37146 -1.38653 -1.3981 -1.44907 -1.37811 -1.43481 -1.39933 -1.4576
internal_weight=0 4272 3261 4111 100 4011 3338 127 2782 1813 969 951 205 38 746 672 456 155 216 81 862 711 3134 1908 1608 453 1155 437 927 380
internal_count=7533 4272 3261 4111 100 4011 3338 127 2782 1813 969 951 205 38 746 672 456 155 216 81 862 711 3134 1908 1608 453 1155 437 927 380
is_linear=0
shrinkage=0.05


Tree=16
num_leaves=31
num_cat=0
split_feature=4 12 9 7 1 1 6 6 7 7 7 7 7 6 1 6 7 6 7 6 7 6 7 7 7 7 7 6 7 7
split_gain=4.21116e+06 76350.2 68355.8 2242.74 1189.64 3132.42 651.194 1638.41 1298.92 1747.21 1067.67 695.614 522.832 534.921 717.438 1052.38 542.367 487.877 608.62 756.347 591.802 488.127 487.165 565.758 464.642 438.313 377.023 633.209 352.861 430.982
threshold=900.0000000025924 1.5000000000000002 42.850000000000009 22.850000000000005 43.050000000000004 42.45000000000001 13.65 14.050000000000002 21.550000000000004 20.950000000000003 20.050000000000004 21.350000000000005 25.050000000000004 13.15 56.850000000000009 14.050000000000002 20.950000000000003 17.750000000000004 22.650000000000002 14.950000000000001 21.250000000000004 18.550000000000004 21.450000000000003 24.150000000000002 24.050000000000004 21.250000000000004 26.450000000000003 14.450000000000001 20.950000000000003 22.850000000000005
decision_type=2 2 2 2 2 2 2 2 2 2 2 2 2 2 2 2 2 2 2 2 2 2 2 2 2 2 2 2 2 2
left_child=2 -2 3 -1 5 -3 22 8 9 10 -8 -11 13 24 -15 -16 -17 18 19 20 -18 -19 -6 -24 25 -4 -14 -28 -9 -30
right_child=1 4 12 -5 6 -7 7 28 -10 11 -12 -13 26 14 15 16 17 21 -20 -21 -22 -23 23 -25 -26 -27 27 -29 29 -31
leaf_value=-3.1356741645119408 -0.016627468427621007 1.1484000297302897 -1.2205251835010671 -2.3907385472328433 1.1535788482989904 2.0792138290405275 0.72626149376233418 1.1371616349931351 1.0568742707072192 0.8450453726450603 1.0430109768852274 0.56827769322054722 -1.2347295376642837 -1.2086582135345978 -1.3966971802568151 -1.2298309410942927 -1.2982125759124756 -1.4740526189509127 -1.2875677305817228 -1.2751071709852955 -1.5957795689322731 -1.2875902782786977 1.0604530295668817 1.137574375662834 -1.1936795043945314 -1.3114836365723415 -1.2327836529961949 -1.5984859037399293 1.0196587794377254 1.0854599863290788
leaf_weight=10.999999999999998 168 94 162 124 265 9.9999999999999982 30 228 398 120 235 28 382 118 499 180 24 97 634 65 55 55 980 314 130 726 29 20 325 1062
leaf_count=11 168 94 162 124 265 10 30 228 398 120 235 28 382 118 499 180 24 97 634 65 55 55 980 314 130 726 29 20 325 1062
internal_value=0 1.02804 -1.34951 -2.45144 1.07096 1.2379 1.0666 1.0504 0.992415 0.930297 1.00715 0.792684 -1.30268 -1.31071 -1.32766 -1.33639 -1.30927 -1.32465 -1.30864 -1.40144 -1.50538 -1.40658 1.09182 1.07917 -1.28197 -1.29489 -1.25148 -1.38205 1.07952 1.07004
internal_weight=0 4257 3311 135 4089 104 3985 2426 811 413 265 148 3176 2745 1727 1609 1110 930 778 144 79 152 1559 1294 1018 888 431 49 1615 1387
internal_count=7568 4257 3311 135 4089 104 3985 2426 811 413 265 148 3176 2745 1727 1609 1110 930 778 144 79 152 1559 1294 1018 888 431 49 1615 1387
is_linear=0
shrinkage=0.05


Tree=17
num_leaves=31
num_cat=0
split_feature=4 12 9 7 7 6 7 6 6 7 1 7 7 7 1 6 6 7 7 6 6 7 6 7 7 7 6 7 7 6
split_gain=3.75194e+06 66933.4 55555.6 814.687 532.769 517.528 496.572 519.297 1036.1 1145.17 659.233 730.096 492.966 576.111 570.977 712.879 923.018 713.135 630.983 539.317 448.463 527.055 1057.69 445.525 845.309 420.447 403.6 373.18 366.441 334.122
threshold=900.0000000025924 1.5000000000000002 42.850000000000009 23.150000000000002 24.050000000000004 17.850000000000005 19.350000000000005 14.050000000000002 13.850000000000003 20.450000000000003 56.850000000000009 20.950000000000003 19.550000000000004 25.050000000000004 56.850000000000009 12.850000000000003 14.050000000000002 21.250000000000004 20.050000000000004 13.850000000000003 17.750000000000004 22.850000000000005 14.950000000000001 20.950000000000003 23.450000000000003 20.950000000000003 18.350000000000005 21.750000000000004 26.450000000000003 18.650000000000002
decision_type=2 2 2 2 2 2 2 2 2 2 2 2 2 2 2 2 2 2 2 2 2 2 2 2 2 2 2 2 2 2
left_child=2 -2 3 -1 6 -6 -3 8 25 -10 -11 -12 -4 14 -14 -16 18 -18 19 -17 21 22 -19 -20 -25 -8 -22 -13 -7 -15
right_child=1 4 12 -5 5 28 7 -9 9 10 11 27 13 29 15 16 17 20 23 -21 26 -23 -24 24 -26 -27 -28 -29 -30 -31
leaf_value=-2.7276859977028587 -0.018674990391798683 1.1034510416499639 -1.1453086593958337 -2.2771062047857988 1.053738933422159 0.97440756252833782 1.0733603307714012 1.0280202352531362 0.71352432409922284 1.0962777137756348 0.99836932532489309 0.78905863234630003 -1.1472983675487971 -1.1774200599231022 -1.2220690516203174 -1.3668257315953569 -1.1642369856437049 -1.5000701570510866 -1.2482225809341823 -1.8640048885345459 -1.4154138994740917 -1.2305651238181374 -1.2382419135835436 -1.4070350952228243 -1.2571146239003828 0.99326745582508613 -1.2483672523498537 0.94106607071378012 0.69299282294053299 -1.3310584141657902
leaf_weight=10.999999999999998 163 118 127 114 1070 105 191 978 60 63 154 104 118 382 827 12.000000000000002 192 60 156 9.9999999999999982 91 550 108 239 155 1153 60 66 12.999999999999998 39
leaf_count=11 163 118 127 114 1070 105 191 978 60 63 154 104 118 382 827 12 192 60 156 10 91 550 108 239 155 1153 60 66 13 39
internal_value=0 0.974855 -1.28313 -2.31676 1.0146 1.04278 1.003 0.998718 0.982718 0.916775 0.948286 0.91951 -1.2418 -1.24588 -1.25474 -1.25989 -1.27905 -1.25145 -1.33024 -1.59282 -1.27071 -1.25424 -1.33175 -1.31974 -1.34806 1.00465 -1.34904 0.848073 0.943404 -1.19165
internal_weight=0 4238 3251 125 4075 1188 2887 2769 1791 447 387 324 3126 2999 2578 2460 1633 1061 572 22 869 718 168 550 394 1344 151 170 118 421
internal_count=7489 4238 3251 125 4075 1188 2887 2769 1791 447 387 324 3126 2999 2578 2460 1633 1061 572 22 869 718 168 550 394 1344 151 170 118 421
is_linear=0
shrinkage=0.05


Tree=18
num_leaves=31
num_cat=0
split_feature=4 12 9 1 7 7 7 7 1 7 7 4 7 7 7 7 7 7 7 7 7 7 7 7 7 7 7 7 7 7
split_gain=3.38115e+06 61632.7 44805.8 1040.81 534.34 1249.72 419.361 331.052 346.391 329.857 409.301 268.783 1159.93 260.32 258.076 246.41 206.37 188.448 182.117 519.961 281.679 175.716 354.729 281.605 178.665 161.6 283.032 159.761 149.161 139.667
threshold=900.0000000025924 1.5000000000000002 42.850000000000009 56.850000000000009 22.850000000000005 20.950000000000003 21.550000000000004 19.550000000000004 56.850000000000009 25.050000000000004 26.450000000000003 1200.0000000023199 21.350000000000005 24.750000000000004 27.050000000000004 24.950000000000003 19.250000000000004 24.650000000000002 22.650000000000002 20.950000000000003 21.350000000000005 26.450000000000003 26.250000000000004 27.050000000000004 25.250000000000004 22.550000000000004 21.950000000000003 20.850000000000005 22.250000000000004 21.450000000000003
decision_type=2 2 2 2 2 2 2 2 2 2 2 2 2 2 2 2 2 2 2 2 2 2 2 2 2 2 2 2 2 2
left_child=2 13 17 11 5 16 29 -4 -9 15 -11 -3 -13 -2 -12 18 -5 -1 19 -10 -21 22 24 -23 -6 26 -8 -18 -22 -7
right_child=1 3 7 4 21 6 25 8 9 10 14 12 -14 -15 -16 -17 27 -19 -20 20 28 23 -24 -25 -26 -27 -28 -29 -30 -31
leaf_value=-2.1243092073458381 0.0046287458973626296 1.0535248041152954 -1.0936246555392481 1.0552341639995575 0.97083177847867119 0.86774336746874658 0.97015588850784695 -1.0954028344154358 -1.158182772385177 -1.1239459976073236 -1.3908176956176759 0.89891404807567599 1.4840135229958429 -0.20753540732257536 -1.1425204330020482 -1.3290687499507783 0.96706698863413187 -2.3082873940467836 -1.1763699614414362 -1.296574076770866 -1.188456829226747 0.80625915656218661 1.1451557800173759 1.0186312215195763 1.009270305298779 0.95589001016530006 0.87867216554610705 1.0338730734422668 -1.2468126660645611 0.77358397587816774
leaf_weight=107 150 156 119 104 1760 243 119 120 372 372 25 15.999999999999998 18 15.999999999999998 18 31 500 15.999999999999998 1502 137 245 37 32 27 365 254 292 109 198 47
leaf_count=107 150 156 119 104 1760 243 119 120 372 372 25 16 18 16 18 31 500 16 1502 137 245 37 32 27 365 254 292 109 198 47
internal_value=0 0.928587 -1.21211 0.967021 0.961438 0.940052 0.902657 -1.17542 -1.17865 -1.18209 -1.14083 1.08129 1.20867 -0.0158208 -1.28688 -1.18898 0.99014 -2.14824 -1.18721 -1.20432 -1.23392 0.9775 0.979922 0.895854 0.977434 0.924537 0.90516 0.979024 -1.21454 0.852483
internal_weight=0 4245 3262 4079 3889 1668 955 3139 3020 2900 415 190 34 166 43 2485 713 123 2454 952 580 2221 2157 64 2125 665 411 609 443 290
internal_count=7507 4245 3262 4079 3889 1668 955 3139 3020 2900 415 190 34 166 43 2485 713 123 2454 952 580 2221 2157 64 2125 665 411 609 443 290
is_linear=0
shrinkage=0.05


Tree=19
num_leaves=31
num_cat=0
split_feature=4 12 9 6 1 6 6 6 6 6 1 6 6 6 6 6 6 6 6 6 6 6 4 6 6 6 6 6 6 6
split_gain=3.0542e+06 57292.7 48780.5 1056.08 634.721 619.156 813.773 668.45 564.725 359.446 315.003 301.715 573.29 261.2 235.936 217.036 168.759 155.352 138.013 125.877 95.6129 367.862 94.8108 73.6048 229.305 103.537 83.409 62.1835 58.9795 54.9596
threshold=900.0000000025924 1.5000000000000002 42.850000000000009 11.15 56.850000000000009 13.050000000000002 14.050000000000002 13.850000000000003 12.250000000000002 17.650000000000002 56.850000000000009 13.15 14.250000000000002 17.750000000000004 11.450000000000001 13.950000000000001 19.150000000000002 13.750000000000002 14.450000000000001 13.15 13.15 14.950000000000001 1200.0000000023199 19.250000000000004 18.850000000000005 18.250000000000004 19.550000000000004 11.65 12.850000000000003 14.050000000000002
decision_type=2 2 2 2 2 2 2 2 2 2 2 2 2 2 2 2 2 2 2 2 2 2 2 2 2 2 2 2 2 2
left_child=2 3 8 -2 -3 27 7 19 14 18 -4 -12 17 -14 -1 -9 -15 -13 22 -7 -10 -22 -8 24 25 -11 -25 -6 -29 -19
right_child=1 4 10 -5 5 6 9 15 20 23 11 12 13 16 -16 -17 -18 29 -20 -21 21 -23 -24 26 -26 -27 -28 28 -30 -31
leaf_value=-2.1430101585388184 -0.48883699427048372 1.0035521064485822 -1.0345980200851173 -0.0016137044791034181 0.94927146484525948 0.8171934288740158 0.8939523422543566 0.78565476497587483 -1.957590337900015 0.84122640894992018 -1.0977575537833302 -1.123922224677339 -1.0947630445938024 -1.1708745380148504 -2.3858764839172362 0.85179122840618771 -1.0632264245640148 -1.1852550577947476 0.93983372036059198 0.90961986889607038 -2.3497046089172366 -2.019072694598504 0.96085726760682599 1.0445873689651488 0.69156939983367927 0.92964816905082537 0.88313980363309386 0.92254117793277901 0.9717698777423186 -1.1535816448662668
leaf_weight=20 11.999999999999998 196 114 152 695 40 332 234 26 112 1056 196 871 211 20 264 44 421 942 466 9.9999999999999982 53 63 9.9999999999999982 21 47 40 578 68 203
leaf_count=20 12 196 114 152 695 40 332 234 26 112 1056 196 871 211 20 264 44 421 942 466 10 53 63 10 21 47 40 578 68 203
internal_value=0 0.879162 -1.15562 -0.0372642 0.915747 0.911348 0.896982 0.861839 -2.1084 0.919499 -1.11618 -1.11928 -1.13095 -1.10779 -2.26444 0.820715 -1.1523 -1.16275 0.929431 0.902313 -2.03826 -2.07155 0.904623 0.861762 0.846854 0.867364 0.915429 0.938891 0.927723 -1.17495
internal_weight=0 4272 3245 164 4108 3912 2571 1004 129 1567 3116 3002 1946 1126 40 498 255 820 1337 506 89 63 395 230 180 159 50 1341 646 624
internal_count=7517 4272 3245 164 4108 3912 2571 1004 129 1567 3116 3002 1946 1126 40 498 255 820 1337 506 89 63 395 230 180 159 50 1341 646 624
is_linear=0
shrinkage=0.05


Tree=20
num_leaves=31
num_cat=0
split_feature=4 12 9 7 7 6 7 1 6 6 7 7 7 7 7 7 4 7 7 6 6 7 1 7 7 7 7 7 6 6
split_gain=2.76119e+06 51197.9 45399.7 1837.56 1823.37 553.356 633.878 767.703 901.641 1378.13 576.069 1508.41 1176.4 634.393 564.437 540.678 517.935 1042.56 480.077 469.328 746.251 1173.73 803.801 558.734 504.115 494.224 756.863 598.704 467.691 468.6
threshold=900.0000000025924 1.5000000000000002 42.850000000000009 24.850000000000005 22.950000000000003 11.65 25.250000000000004 56.850000000000009 14.550000000000002 13.65 23.450000000000003 21.050000000000004 24.650000000000002 20.150000000000002 21.750000000000004 24.150000000000002 1200.0000000023199 23.850000000000005 22.450000000000003 13.750000000000002 14.050000000000002 25.250000000000004 56.850000000000009 21.450000000000003 19.850000000000005 24.850000000000005 22.450000000000003 20.950000000000003 13.050000000000002 18.850000000000005
decision_type=2 2 2 2 2 2 2 2 2 2 2 2 2 2 2 2 2 2 2 2 2 2 2 2 2 2 2 2 2 2
left_child=2 3 4 -2 -1 -3 7 -7 9 14 11 13 16 -11 -9 -16 -12 -18 -10 -4 21 22 -21 -22 -24 26 27 -26 -8 -30
right_child=1 5 19 -5 -6 6 28 8 18 10 12 -13 -14 -15 15 -17 17 -19 -20 20 23 -23 24 -25 25 -27 -28 -29 29 -31
leaf_value=-2.6182919935746627 0.0085442654557185242 0.91088617807394034 -1.0380630901557504 -0.69103877095505606 -1.9463827862002987 0.94828619932517033 0.74315320092278558 0.95585483865040111 0.95081768760057261 0.66170680586737207 0.88353923043040072 0.6593678600408106 0.68950447047129282 0.83403391982960606 0.82735057520008037 0.93607193537660549 1.4698525249958037 0.85332980081439025 0.86585081494094551 -0.98721004238835097 -0.98866161358714622 -0.94406636851174497 -1.5002696110652043 -1.0735588036891488 -1.1427017993614323 -1.4451898294336658 -1.0423270386318828 -1.3077355537414552 0.93969301329772981 0.70306353243914521
leaf_weight=10.999999999999998 153 666 1261 9.9999999999999982 123 195 37 164 214 61 152 239 80 429 503 148 12.000000000000002 15.999999999999998 745 54 233 70 12.999999999999998 1152 122 17 86 100 427 22
leaf_count=11 153 666 1261 10 123 195 37 164 214 61 152 239 80 429 503 148 12 16 745 54 233 70 13 1152 122 17 86 100 427 22
internal_value=0 0.834699 -1.10043 -0.0343749 -2.00154 0.869166 0.861098 0.852403 0.845636 0.824811 0.78514 0.762351 0.849038 0.812581 0.872952 0.852068 0.919942 1.11755 0.884811 -1.06158 -1.07763 -1.13266 -1.16634 -1.05928 -1.19496 -1.18274 -1.16826 -1.21704 0.914018 0.928099
internal_weight=0 4273 3242 163 134 4110 3444 2958 2763 1804 989 729 260 490 815 651 180 28 959 3108 1847 462 392 1385 338 325 308 222 486 449
internal_count=7515 4273 3242 163 134 4110 3444 2958 2763 1804 989 729 260 490 815 651 180 28 959 3108 1847 462 392 1385 338 325 308 222 486 449
is_linear=0
shrinkage=0.05


Tree=21
num_leaves=31
num_cat=0
split_feature=4 12 9 6 1 1 7 7 6 1 6 7 6 7 7 7 7 6 6 6 7 7 7 7 7 7 7 6 7 7
split_gain=2.50051e+06 46635.8 35829.7 1292.67 933.738 2441.76 622.643 433.214 447.803 556.167 793.712 508.284 391.264 373.712 849.579 454.307 372.712 440.054 359.418 788.154 868.937 948.207 675.307 501.938 551.081 457.879 390.353 1309.83 693.982 342.34
threshold=900.0000000025924 1.5000000000000002 42.850000000000009 11.15 42.95000000000001 42.45000000000001 23.050000000000004 25.050000000000004 13.15 56.850000000000009 14.450000000000001 21.750000000000004 17.750000000000004 22.450000000000003 20.950000000000003 20.850000000000005 24.850000000000005 13.850000000000003 13.750000000000002 14.050000000000002 21.550000000000004 21.250000000000004 20.350000000000005 21.950000000000003 24.150000000000002 20.950000000000003 26.450000000000003 17.550000000000004 25.250000000000004 26.450000000000003
decision_type=2 2 2 2 2 2 2 2 2 2 2 2 2 2 2 2 2 2 2 2 2 2 2 2 2 2 2 2 2 2
left_child=2 3 6 -2 5 -3 -1 8 -4 -10 13 -12 -13 14 15 -11 17 -15 23 20 21 22 -20 -6 -25 -21 28 -28 -27 -9
right_child=1 4 7 -5 18 -7 -8 29 9 10 11 12 -14 16 -16 -17 -18 -19 19 25 -22 -23 -24 24 -26 26 27 -29 -30 -31
leaf_value=-2.2606711101531984 -0.58757258892059328 0.89664490511129191 -0.99041680613142646 -0.00069126395116511153 0.88917772152594154 1.7197617149353031 -1.848895570210048 -0.94603236964953852 -0.92891674199380159 -1.0841140273005463 -0.92162216493061622 -1.0073432980494994 -1.0970468928939419 -1.0903913096377724 -1.1815570054145961 -0.92529821708554127 -1.1999735421147839 -0.9476277599334717 0.59234997957456315 0.89823751284923736 0.82779064372810263 0.48393489214090207 0.77521199521643613 0.80538105187412778 0.87903678670483343 0.80958617911122155 0.94088032960891721 0.35296044879489474 0.90910827445523168 -1.0906217222628387
leaf_weight=9.9999999999999982 9.9999999999999982 91 1022 152 420 9.9999999999999982 112 372 121 172 140 607 152 95 208 61 29 125 61 219 332 39 293 905 353 1139 20 18 207 46
leaf_count=10 10 91 1022 152 420 10 112 372 121 172 140 607 152 95 208 61 29 125 61 219 332 39 293 905 353 1139 20 18 207 46
internal_value=0 0.795173 -1.04191 -0.0369185 0.827995 0.978142 -1.88265 -1.00935 -1.0166 -1.03225 -1.04012 -1.00916 -1.02531 -1.08046 -1.10811 -1.04254 -1.03149 -1.00928 0.82421 0.811495 0.768235 0.717923 0.743702 0.84185 0.826049 0.83106 0.82043 0.662392 0.824892 -0.961944
internal_weight=0 4269 3272 162 4107 101 122 3150 2732 1710 1589 899 759 690 441 233 249 220 4006 2328 725 393 354 1678 1258 1603 1384 38 1346 418
internal_count=7541 4269 3272 162 4107 101 122 3150 2732 1710 1589 899 759 690 441 233 249 220 4006 2328 725 393 354 1678 1258 1603 1384 38 1346 418
is_linear=0
shrinkage=0.05


Tree=22
num_leaves=31
num_cat=0
split_feature=4 12 9 0 0 7 7 6 6 7 7 6 7 6 7 7 7 7 6 7 7 7 7 6 0 6 6 0 4 6
split_gain=2.24885e+06 37172.4 33931.1 791.38 2099.77 624.747 540.2 830.086 1027.21 723.373 700.201 650.852 537.229 417.385 1666.46 440.392 404.671 399.11 645.309 384.024 695.603 359.69 424.136 348.55 338.264 463.572 429.584 542.097 334.632 321.649
threshold=900.0000000025924 1.5000000000000002 42.850000000000009 29.650000000000002 29.250000000000004 23.150000000000002 22.850000000000005 15.250000000000002 13.850000000000003 21.250000000000004 21.450000000000003 13.950000000000001 20.050000000000004 17.650000000000002 26.450000000000003 26.150000000000002 24.650000000000002 20.350000000000005 14.050000000000002 22.550000000000004 22.350000000000005 20.950000000000003 22.650000000000002 13.050000000000002 29.950000000000003 13.65 14.950000000000001 30.050000000000004 1200.0000000023199 11.450000000000001
decision_type=2 2 2 2 2 2 2 2 2 2 2 2 2 2 2 2 2 2 2 2 2 2 2 2 2 2 2 2 2 2
left_child=2 -2 5 4 -3 -1 7 8 10 11 -5 12 -10 15 16 28 -15 18 -13 20 -11 -4 24 -12 -23 -26 27 -27 29 -8
right_child=1 3 21 6 -6 -7 13 -9 9 19 23 17 -14 14 -16 -17 -18 -19 -20 -21 -22 22 -24 -25 25 26 -28 -29 -30 -31
leaf_value=-2.1692778301239013 -0.0087968589263219456 0.8375276695598256 -0.91910643206702347 0.83507324616194423 1.5134175318938037 -1.7575301463787374 0.84525001994124416 0.8451230713641309 0.2905065602064133 0.61217885023533292 0.76280755601464756 0.45698651278018954 0.66975940795919153 0.70067039063343639 0.18124930675213155 0.90203565096636429 0.84822192674591435 0.79326212583363165 0.77928920204228747 0.76587147949373025 0.21457140110433104 -0.89599976672066584 -0.9520268695223737 0.64782033718656751 -0.96702887709935514 -1.1197841886411677 -0.951163412429191 -0.8805852607444481 0.84485377798751227 0.78042770691253605
leaf_weight=9.9999999999999982 153 99 540 372 12.999999999999998 117 222 249 9.9999999999999982 132 374 25 141 104 12.999999999999998 109 84 294 41 34 11.999999999999998 72 1915 80 300 193 74 27 327 1387
leaf_count=10 153 99 540 372 13 117 222 249 10 132 374 25 141 104 13 109 84 294 41 34 12 72 1915 80 300 193 74 27 327 1387
internal_value=0 0.756483 -0.988816 0.784889 0.915979 -1.78995 0.781227 0.760519 0.746614 0.701535 0.784217 0.731772 0.644643 0.797491 0.728739 0.804248 0.766598 0.768318 0.657205 0.614731 0.579045 -0.956216 -0.96398 0.742545 -0.99835 -1.01076 -1.05537 -1.09043 0.798743 0.789371
internal_weight=0 4275 3248 4122 112 127 4010 1764 1515 689 826 511 151 2246 201 2045 188 360 66 178 144 3121 2581 454 666 594 294 220 1936 1609
internal_count=7523 4275 3248 4122 112 127 4010 1764 1515 689 826 511 151 2246 201 2045 188 360 66 178 144 3121 2581 454 666 594 294 220 1936 1609
is_linear=0
shrinkage=0.05


Tree=23
num_leaves=31
num_cat=0
split_feature=4 12 9 1 1 6 6 6 6 6 0 6 1 6 6 6 6 6 6 4 4 6 6 6 6 4 6 6 4 6
split_gain=2.02104e+06 32916.6 32001.9 867.741 2176.06 455.25 251.97 232.933 697.051 444.701 258.462 198.002 187.772 210.146 659.087 245.089 164.805 152.724 118.548 116.813 101.181 94.144 93.2858 148.296 299.914 83.4709 370.708 139.099 74.4591 613.899
threshold=900.0000000025924 1.5000000000000002 42.850000000000009 42.95000000000001 42.050000000000004 11.550000000000002 18.050000000000004 13.050000000000002 14.050000000000002 13.850000000000003 29.950000000000003 18.250000000000004 52.750000000000007 13.250000000000002 14.15 13.850000000000003 17.650000000000002 15.750000000000002 14.050000000000002 600.00000000286502 1200.0000000023199 11.250000000000002 18.150000000000002 13.15 14.550000000000002 1200.0000000023199 14.65 14.15 600.00000000286502 14.950000000000001
decision_type=2 2 2 2 2 2 2 2 2 2 2 2 2 2 2 2 2 2 2 2 2 2 2 2 2 2 2 2 2 2
left_child=2 21 5 4 20 -1 12 -5 9 -9 -11 -8 -4 -14 15 19 17 25 -17 -15 -3 -2 23 -7 -25 27 -27 -10 -16 -30
right_child=1 3 6 7 -6 22 11 8 16 10 -12 -13 13 14 28 18 -18 -19 -20 -21 -22 -23 -24 24 -26 26 -28 -29 29 -31
leaf_value=-1.8946958144505819 -0.12842221078462898 0.83066390507841759 -0.83677680158169476 0.76098233396525217 1.5586317669261587 -1.6055743562414293 -1.0217278462189894 0.73596055996720011 0.7058256026359826 0.8154289146949506 0.66175315326160544 -0.92096101944263165 -0.88733701034573442 -0.92461609131048539 -0.88566067190610775 -0.99174989413011705 0.71717092134219751 0.78266498200477119 -0.93210378516036863 -0.80168116660345179 0.66107538223266604 5.5951238361023763e-05 -1.5160834832624956 -1.9742035484313967 -1.6688086998171923 0.84481274787076688 0.66210937834367523 0.75619423617205206 -1.281952680240978 -0.87454175126963651
leaf_weight=24 15.999999999999998 73 107 1351 10.999999999999998 47 78 523 193 29 484 130 1108 242 931 317 231 567 113 21 9.9999999999999982 131 10.999999999999998 9.9999999999999982 41 86 41 473 10.999999999999998 58
leaf_count=24 16 73 107 1351 11 47 78 523 193 29 484 130 1108 242 931 317 231 567 113 21 10 131 11 10 41 86 41 473 11 58
internal_value=0 0.721123 -0.938005 0.747659 0.89781 -1.69755 -0.905585 0.744111 0.735434 0.703517 0.67044 -0.958749 -0.901783 -0.904266 -0.915345 -0.952821 0.756218 0.76285 -0.976075 -0.9148 0.810232 -0.0139281 -1.65415 -1.66964 -1.72869 0.748682 0.78583 0.741598 -0.889375 -0.939491
internal_weight=0 4219 3249 4072 94 133 3116 3978 2627 1036 513 208 2908 2801 1693 693 1591 1360 430 263 83 147 109 98 51 793 127 666 1000 69
internal_count=7468 4219 3249 4072 94 133 3116 3978 2627 1036 513 208 2908 2801 1693 693 1591 1360 430 263 83 147 109 98 51 793 127 666 1000 69
is_linear=0
shrinkage=0.05


end of trees

feature_importances:
cooling_water_temp=296
chilled_water_temp=269
outdoor_humidity=51
indoor_load=43
cooling_pump_freq=25
cooling_pump_running_count=23
outdoor_temp=8
chiller_load=5

parameters:
[boosting: gbdt]
[objective: regression]
[metric: l2]
[tree_learner: serial]
[device_type: cpu]
[data_sample_strategy: bagging]
[data: ]
[valid: ]
[num_iterations: 300]
[learning_rate: 0.05]
[num_leaves: 31]
[num_threads: 1]
[seed: 42]
[deterministic: 0]
[force_col_wise: 1]
[force_row_wise: 0]
[histogram_pool_size: -1]
[max_depth: -1]
[min_data_in_leaf: 10]
[min_sum_hessian_in_leaf: 0.001]
[bagging_fraction: 0.8]
[pos_bagging_fraction: 1]
[neg_bagging_fraction: 1]
[bagging_freq: 1]
[bagging_seed: 400]
[feature_fraction: 0.9]
[feature_fraction_bynode: 1]
[feature_fraction_seed: 30056]
[extra_trees: 0]
[extra_seed: 12879]
[early_stopping_round: 0]
[early_stopping_min_delta: 0]
[first_metric_only: 0]
[max_delta_step: 0]
[lambda_l1: 0]
[lambda_l2: 0]
[linear_lambda: 0]
[min_gain_to_split: 0]
[drop_rate: 0.1]
[max_drop: 50]
[skip_drop: 0.5]
[xgboost_dart_mode: 0]
[uniform_drop: 0]
[drop_seed: 17869]
[top_rate: 0.2]
[other_rate: 0.1]
[min_data_per_group: 100]
[max_cat_threshold: 32]
[cat_l2: 10]
[cat_smooth: 10]
[max_cat_to_onehot: 4]
[top_k: 20]
[monotone_constraints: ]
[monotone_constraints_method: basic]
[monotone_penalty: 0]
[feature_contri: ]
[forcedsplits_filename: ]
[refit_decay_rate: 0.9]
[cegb_tradeoff: 1]
[cegb_penalty_split: 0]
[cegb_penalty_feature_lazy: ]
[cegb_penalty_feature_coupled: ]
[path_smooth: 0]
[interaction_constraints: ]
[verbosity: -1]
[saved_feature_importance_type: 0]
[use_quantized_grad: 0]
[num_grad_quant_bins: 4]
[quant_train_renew_leaf: 0]
[stochastic_rounding: 1]
[linear_tree: 0]
[max_bin: 255]
[max_bin_by_feature: ]
[min_data_in_bin: 3]
[bin_construct_sample_cnt: 200000]
[data_random_seed: 175]
[is_enable_sparse: 1]
[enable_bundle: 1]
[use_missing: 1]
[zero_as_missing: 0]
[feature_pre_filter: 1]
[pre_partition: 0]
[two_round: 0]
[header: 0]
[label_column: ]
[weight_column: ]
[group_column: ]
[ignore_column: ]
[categorical_feature: ]
[forcedbins_filename: ]
[precise_float_parser: 0]
[parser_config_file: ]
[objective_seed: 16083]
[num_class: 1]
[is_unbalance: 0]
[scale_pos_weight: 1]
[sigmoid: 1]
[boost_from_average: 1]
[reg_sqrt: 0]
[alpha: 0.9]
[fair_c: 1]
[poisson_max_delta_step: 0.7]
[tweedie_variance_power: 1.5]
[lambdarank_truncation_level: 30]
[lambdarank_norm: 1]
[label_gain: ]
[lambdarank_position_bias_regularization: 0]
[eval_at: ]
[multi_error_top_k: 1]
[auc_mu_weights: ]
[num_machines: 1]
[local_listen_port: 12400]
[time_out: 120]
[machine_list_filename: ]
[machines: ]
[gpu_platform_id: -1]
[gpu_device_id: -1]
[gpu_use_dp: 0]
[num_gpu: 1]

end of parameters

pandas_categorical:null
